~o
<STREAMINFO> 1 12
<VECSIZE> 12<NULLD><MFCC><DIAGC>
~h "SIL"
<BEGINHMM>
<NUMSTATES> 5
<STATE> 2
<MEAN> 12
 -9.373823e+000 -6.514513e+000 -2.273135e-002 -7.494861e+000 -2.328993e+000 4.547772e+000 -4.829601e-001 -1.660035e+000 -3.548282e-001 5.838175e-001 2.149146e+000 -4.871847e-001
<VARIANCE> 12
 1.231430e+001 1.232201e+001 1.786066e+001 2.467132e+001 1.502494e+001 4.717492e+001 4.220372e+001 1.848316e+001 4.319799e+001 4.365113e+001 2.209656e+001 2.910365e+001
<GCONST> 6.039617e+001
<STATE> 3
<MEAN> 12
 -1.237558e+001 -1.718902e+001 -2.754280e+000 3.500993e+000 2.179166e+001 -1.586292e+001 -1.724983e+001 1.289520e+001 4.190767e+000 1.322553e+001 -2.355245e+001 -9.578400e-001
<VARIANCE> 12
 6.568927e+000 2.198736e+000 6.822261e+000 1.524861e+001 6.279597e+001 1.270801e+002 5.694268e+001 3.394576e+001 2.305292e+001 7.732664e+001 1.440714e+002 6.392501e+001
<GCONST> 6.253481e+001
<STATE> 4
<MEAN> 12
 -7.559677e+000 -1.050376e+001 -7.812490e+000 -1.439976e+001 4.617000e+000 1.139865e+001 4.823166e-001 -7.106227e-001 -2.798268e+000 6.395501e-001 -1.367164e+000 -2.540480e-001
<VARIANCE> 12
 3.270144e+001 4.128861e+001 2.880497e+001 5.132230e+001 2.998799e+002 1.115697e+002 3.878314e+002 9.412182e+001 6.452039e+001 1.248549e+002 6.833357e+001 5.638408e+001
<GCONST> 7.473512e+001
<TRANSP> 5
 0.000000e+000 1.000000e+000 0.000000e+000 0.000000e+000 0.000000e+000
 0.000000e+000 7.703517e-001 5.985418e-002 1.697941e-001 0.000000e+000
 0.000000e+000 0.000000e+000 8.204828e-001 1.795172e-001 0.000000e+000
 0.000000e+000 6.508132e-002 0.000000e+000 3.644427e-001 5.704759e-001
 0.000000e+000 0.000000e+000 0.000000e+000 0.000000e+000 0.000000e+000
<ENDHMM>
~h "CURRAWONG1"
<BEGINHMM>
<NUMSTATES> 8
<STATE> 2
<MEAN> 12
 -1.029191e+001 -1.671170e+001 -1.335613e+001 -2.389231e+001 1.173954e+001 2.588733e+001 -2.870075e+000 -9.609265e+000 1.768941e+000 -2.192321e+000 -1.075378e+000 -6.450195e-001
<VARIANCE> 12
 2.265377e+001 2.060843e+001 1.528488e+001 2.737283e+001 2.049829e+002 1.109823e+002 2.705436e+002 1.939599e+002 3.085037e+001 8.062630e+001 1.413120e+002 1.924633e+002
<GCONST> 7.316719e+001
<STATE> 3
<MEAN> 12
 -6.189590e+000 -1.576335e+001 -1.384057e+001 -2.636616e+001 -1.493323e+000 1.336783e+001 2.618541e-001 -4.319148e+000 -2.352135e-001 2.271364e+000 3.836914e+000 7.275675e-001
<VARIANCE> 12
 4.688879e+000 1.387516e+001 5.915939e+000 3.031770e+001 6.462880e+001 2.276209e+002 2.611409e+002 1.415016e+002 3.849405e+001 7.950970e+001 5.862034e+001 1.117077e+002
<GCONST> 6.834627e+001
<STATE> 4
<MEAN> 12
 -4.250621e+000 -1.288068e+001 -1.198724e+001 -2.405622e+001 -4.567840e+000 8.029772e+000 -4.146023e+000 -6.416568e+000 -4.757334e+000 -3.290838e-001 2.314207e+000 2.641207e+000
<VARIANCE> 12
 8.356272e+000 5.297619e+000 1.302774e+001 1.302914e+001 7.950227e+001 1.335881e+002 1.974965e+002 4.801012e+001 2.584880e+001 1.531454e+001 1.070616e+002 1.435292e+002
<GCONST> 6.502775e+001
<STATE> 5
<MEAN> 12
 -3.775174e+000 -1.244630e+001 -1.190126e+001 -2.628730e+001 -4.403543e+000 -9.517447e-001 -1.443628e+001 -1.578058e+000 -1.868225e-001 6.991693e+000 4.392236e+000 -3.078723e+000
<VARIANCE> 12
 4.280502e+000 5.919261e+000 7.587037e+000 1.423154e+001 1.861266e+001 8.460246e+001 1.506702e+002 7.453790e+001 8.056142e+001 6.083105e+001 5.497271e+001 7.078967e+001
<GCONST> 6.342058e+001
<STATE> 6
<MEAN> 12
 -3.653291e+000 -1.277661e+001 -1.093205e+001 -2.296627e+001 -4.946031e+000 -6.783718e+000 -1.699210e+001 1.956455e+000 7.032129e+000 1.177056e+001 8.020647e+000 1.686940e-001
<VARIANCE> 12
 2.344898e+000 6.736742e+000 3.977643e+000 1.265477e+001 1.054501e+001 3.469845e+001 3.516067e+001 2.168473e+001 2.467102e+001 2.163432e+001 2.909173e+001 1.811749e+001
<GCONST> 5.381919e+001
<STATE> 7
<MEAN> 12
 -4.832599e+000 -6.823296e+000 -5.575398e+000 -1.548206e+001 -5.873743e+000 4.016189e+000 -3.009681e+000 -3.353057e+000 -3.253355e-003 1.066331e+000 3.248433e+000 -4.012419e-001
<VARIANCE> 12
 8.294528e+000 9.893981e+000 1.192895e+001 1.411527e+001 2.863373e+001 8.007336e+001 5.715313e+001 4.651463e+001 1.048556e+002 6.980642e+001 2.369169e+001 1.363040e+001
<GCONST> 6.188704e+001
<TRANSP> 8
 0.000000e+000 1.000000e+000 0.000000e+000 0.000000e+000 0.000000e+000 0.000000e+000 0.000000e+000 0.000000e+000
 0.000000e+000 7.776637e-001 2.223363e-001 0.000000e+000 0.000000e+000 0.000000e+000 0.000000e+000 0.000000e+000
 0.000000e+000 0.000000e+000 7.402911e-001 2.597089e-001 0.000000e+000 0.000000e+000 0.000000e+000 0.000000e+000
 0.000000e+000 0.000000e+000 0.000000e+000 7.235982e-001 2.764018e-001 0.000000e+000 0.000000e+000 0.000000e+000
 0.000000e+000 0.000000e+000 0.000000e+000 0.000000e+000 3.336365e-001 6.663635e-001 0.000000e+000 0.000000e+000
 0.000000e+000 0.000000e+000 0.000000e+000 0.000000e+000 0.000000e+000 9.014040e-001 9.859601e-002 0.000000e+000
 0.000000e+000 0.000000e+000 0.000000e+000 0.000000e+000 0.000000e+000 0.000000e+000 7.747689e-001 2.252310e-001
 0.000000e+000 0.000000e+000 0.000000e+000 0.000000e+000 0.000000e+000 0.000000e+000 0.000000e+000 0.000000e+000
<ENDHMM>
