~o
<STREAMINFO> 1 12
<VECSIZE> 12<NULLD><MFCC><DIAGC>
~h "SIL"
<BEGINHMM>
<NUMSTATES> 5
<STATE> 2
<MEAN> 12
 -1.110019e+001 -3.262561e+000 -3.585719e+000 -6.102484e+000 4.673572e+000 -1.808685e+000 -8.529055e-001 -2.977313e-001 2.161311e+000 -8.077161e-001 -9.731286e-001 -3.614446e+000
<VARIANCE> 12
 1.026667e+001 1.201610e+001 2.526288e+001 1.618705e+001 4.294140e+001 3.788535e+001 2.708936e+001 6.030866e+001 3.765178e+001 4.027572e+001 3.529729e+001 3.875671e+001
<GCONST> 6.222148e+001
<STATE> 3
<MEAN> 12
 -1.694497e+001 -1.044245e+001 -2.539291e+000 2.063377e+001 -1.225604e+001 -1.303414e+001 9.360892e+000 1.257368e+001 -1.045908e+001 -1.455158e+001 1.734358e+001 -3.785030e+000
<VARIANCE> 12
 6.889281e+000 4.049749e+000 1.932254e+001 6.281885e+001 1.219913e+002 4.521927e+001 1.255155e+001 4.212039e+001 1.100789e+002 8.576053e+001 6.309463e+001 2.015289e+001
<GCONST> 6.367126e+001
<STATE> 4
<MEAN> 12
 -1.000575e+001 -8.175241e+000 -1.265078e+001 -2.573323e+000 1.293799e+001 -6.756570e-001 -2.314233e+000 -2.257238e+000 -3.496861e-001 -2.590890e+000 3.149306e-001 -6.165390e+000
<VARIANCE> 12
 5.184124e+001 2.557401e+001 3.314104e+001 2.478364e+002 1.244521e+002 3.888430e+002 1.141842e+002 1.012315e+002 1.434751e+002 9.292362e+001 7.262969e+001 9.429803e+001
<GCONST> 7.672992e+001
<TRANSP> 5
 0.000000e+000 1.000000e+000 0.000000e+000 0.000000e+000 0.000000e+000
 0.000000e+000 7.565085e-001 6.299412e-002 1.804973e-001 0.000000e+000
 0.000000e+000 0.000000e+000 8.186814e-001 1.813186e-001 0.000000e+000
 0.000000e+000 7.080061e-002 0.000000e+000 3.500481e-001 5.791513e-001
 0.000000e+000 0.000000e+000 0.000000e+000 0.000000e+000 0.000000e+000
<ENDHMM>
~h "CURRAWONG1"
<BEGINHMM>
<NUMSTATES> 8
<STATE> 2
<MEAN> 12
 -1.585740e+001 -1.532382e+001 -2.215872e+001 -8.002480e-002 2.467169e+001 -1.295928e+001 -2.002241e-001 7.475708e-001 2.526392e+000 -6.954346e+000 2.635730e+000 2.863682e+000
<VARIANCE> 12
 1.667141e+001 1.275928e+001 2.219010e+001 1.314319e+002 2.421960e+002 2.196553e+002 1.267275e+002 4.542528e+001 1.417854e+002 2.555238e+002 1.021055e+002 3.613523e+001
<GCONST> 7.364343e+001
<STATE> 3
<MEAN> 12
 -7.741089e+000 -1.321988e+001 -2.119121e+001 -1.515978e+001 2.173850e+001 4.241398e+000 -9.303331e+000 -2.763776e+000 7.043573e-002 9.378392e+000 -5.935638e-001 -7.295415e+000
<VARIANCE> 12
 6.130889e+000 8.284652e+000 1.319572e+001 6.910777e+001 1.837091e+002 1.545726e+002 9.965127e+001 3.723886e+001 9.159992e+001 1.455685e+002 7.549349e+001 5.114204e+001
<GCONST> 6.902760e+001
<STATE> 4
<MEAN> 12
 -9.366839e+000 -1.171478e+001 -2.057139e+001 -9.701182e+000 6.487400e+000 -1.396350e+001 -4.175801e+000 -3.785939e+000 3.114886e+000 -6.442137e+000 3.517896e+000 1.140636e+000
<VARIANCE> 12
 1.189301e+001 7.507781e+000 6.782321e+000 4.141122e+001 6.660924e+001 1.167846e+002 4.808706e+001 2.195082e+001 6.102617e+001 1.905441e+002 4.991838e+001 6.669849e+001
<GCONST> 6.557704e+001
<STATE> 5
<MEAN> 12
 -8.187424e+000 -1.104507e+001 -2.169073e+001 -1.377311e+001 1.270927e+000 -1.676931e+001 -1.964513e+000 3.795301e-001 9.177847e+000 -1.971567e+000 6.939497e+000 3.313540e+000
<VARIANCE> 12
 5.984779e+000 3.501270e+000 8.394814e+000 1.501017e+001 6.992204e+001 1.468071e+002 5.075292e+001 4.204716e+001 6.952188e+001 6.978181e+001 8.439330e+001 7.735231e+001
<GCONST> 6.410635e+001
<STATE> 6
<MEAN> 12
 -7.326597e+000 -1.149554e+001 -1.947041e+001 -1.228014e+001 -3.604147e+000 -1.655475e+001 6.926791e+000 9.412256e+000 1.342208e+001 -9.932520e-001 1.900260e+000 -5.540155e+000
<VARIANCE> 12
 3.241050e+000 4.587254e+000 8.583794e+000 1.236610e+001 3.022458e+001 3.565823e+001 3.014008e+001 2.774113e+001 3.601928e+001 2.920683e+001 4.871396e+001 2.403242e+001
<GCONST> 5.715377e+001
<STATE> 7
<MEAN> 12
 -6.638198e+000 -5.727243e+000 -1.154293e+001 -1.163773e+001 5.180201e+000 -3.567643e+000 -2.315883e+000 -1.127733e+000 2.381678e+000 7.487269e-002 -5.273196e+000 -9.682472e+000
<VARIANCE> 12
 7.665075e+000 1.033291e+001 1.379344e+001 2.478400e+001 6.954450e+001 5.353616e+001 8.858496e+001 1.408137e+002 4.862950e+001 2.291927e+001 3.561891e+001 5.665936e+001
<GCONST> 6.454079e+001
<TRANSP> 8
 0.000000e+000 1.000000e+000 0.000000e+000 0.000000e+000 0.000000e+000 0.000000e+000 0.000000e+000 0.000000e+000
 0.000000e+000 7.536559e-001 2.463442e-001 0.000000e+000 0.000000e+000 0.000000e+000 0.000000e+000 0.000000e+000
 0.000000e+000 0.000000e+000 8.272689e-001 1.727311e-001 0.000000e+000 0.000000e+000 0.000000e+000 0.000000e+000
 0.000000e+000 0.000000e+000 0.000000e+000 5.510952e-001 4.489048e-001 0.000000e+000 0.000000e+000 0.000000e+000
 0.000000e+000 0.000000e+000 0.000000e+000 0.000000e+000 3.806553e-001 6.193448e-001 0.000000e+000 0.000000e+000
 0.000000e+000 0.000000e+000 0.000000e+000 0.000000e+000 0.000000e+000 9.005868e-001 9.941325e-002 0.000000e+000
 0.000000e+000 0.000000e+000 0.000000e+000 0.000000e+000 0.000000e+000 0.000000e+000 7.864532e-001 2.135467e-001
 0.000000e+000 0.000000e+000 0.000000e+000 0.000000e+000 0.000000e+000 0.000000e+000 0.000000e+000 0.000000e+000
<ENDHMM>
