~o
<STREAMINFO> 1 12
<VECSIZE> 12<NULLD><MFCC><DIAGC>
~h "proto"
<BEGINHMM>
<NUMSTATES> 8
<STATE> 2
<MEAN> 12
 -1.051786e+001 -1.703198e+000 2.525581e-001 -1.254037e+001 -8.691536e+000 -3.554347e+000 2.796330e+000 2.907195e+000 7.923513e-001 -8.194512e-001 -5.458432e-001 -2.339572e-002
<VARIANCE> 12
 7.697158e+000 1.471797e+001 2.514369e+001 7.960442e+001 9.070238e+001 2.460639e+002 1.686039e+002 5.687394e+001 1.436459e+002 2.692521e+002 1.751730e+002 9.340894e+001
<GCONST> 7.383344e+001
<STATE> 3
<MEAN> 12
 -1.051786e+001 -1.703198e+000 2.525581e-001 -1.254037e+001 -8.691536e+000 -3.554347e+000 2.796330e+000 2.907195e+000 7.923513e-001 -8.194512e-001 -5.458432e-001 -2.339572e-002
<VARIANCE> 12
 7.697158e+000 1.471797e+001 2.514369e+001 7.960442e+001 9.070238e+001 2.460639e+002 1.686039e+002 5.687394e+001 1.436459e+002 2.692521e+002 1.751730e+002 9.340894e+001
<GCONST> 7.383344e+001
<STATE> 4
<MEAN> 12
 -1.051786e+001 -1.703198e+000 2.525581e-001 -1.254037e+001 -8.691536e+000 -3.554347e+000 2.796330e+000 2.907195e+000 7.923513e-001 -8.194512e-001 -5.458432e-001 -2.339572e-002
<VARIANCE> 12
 7.697158e+000 1.471797e+001 2.514369e+001 7.960442e+001 9.070238e+001 2.460639e+002 1.686039e+002 5.687394e+001 1.436459e+002 2.692521e+002 1.751730e+002 9.340894e+001
<GCONST> 7.383344e+001
<STATE> 5
<MEAN> 12
 -1.051786e+001 -1.703198e+000 2.525581e-001 -1.254037e+001 -8.691536e+000 -3.554347e+000 2.796330e+000 2.907195e+000 7.923513e-001 -8.194512e-001 -5.458432e-001 -2.339572e-002
<VARIANCE> 12
 7.697158e+000 1.471797e+001 2.514369e+001 7.960442e+001 9.070238e+001 2.460639e+002 1.686039e+002 5.687394e+001 1.436459e+002 2.692521e+002 1.751730e+002 9.340894e+001
<GCONST> 7.383344e+001
<STATE> 6
<MEAN> 12
 -1.051786e+001 -1.703198e+000 2.525581e-001 -1.254037e+001 -8.691536e+000 -3.554347e+000 2.796330e+000 2.907195e+000 7.923513e-001 -8.194512e-001 -5.458432e-001 -2.339572e-002
<VARIANCE> 12
 7.697158e+000 1.471797e+001 2.514369e+001 7.960442e+001 9.070238e+001 2.460639e+002 1.686039e+002 5.687394e+001 1.436459e+002 2.692521e+002 1.751730e+002 9.340894e+001
<GCONST> 7.383344e+001
<STATE> 7
<MEAN> 12
 -1.051786e+001 -1.703198e+000 2.525581e-001 -1.254037e+001 -8.691536e+000 -3.554347e+000 2.796330e+000 2.907195e+000 7.923513e-001 -8.194512e-001 -5.458432e-001 -2.339572e-002
<VARIANCE> 12
 7.697158e+000 1.471797e+001 2.514369e+001 7.960442e+001 9.070238e+001 2.460639e+002 1.686039e+002 5.687394e+001 1.436459e+002 2.692521e+002 1.751730e+002 9.340894e+001
<GCONST> 7.383344e+001
<TRANSP> 8
 0.000000e+000 1.000000e+000 0.000000e+000 0.000000e+000 0.000000e+000 0.000000e+000 0.000000e+000 0.000000e+000
 0.000000e+000 6.000000e-001 4.000000e-001 0.000000e+000 0.000000e+000 0.000000e+000 0.000000e+000 0.000000e+000
 0.000000e+000 0.000000e+000 6.000000e-001 4.000000e-001 0.000000e+000 0.000000e+000 0.000000e+000 0.000000e+000
 0.000000e+000 0.000000e+000 0.000000e+000 6.000000e-001 4.000000e-001 0.000000e+000 0.000000e+000 0.000000e+000
 0.000000e+000 0.000000e+000 0.000000e+000 0.000000e+000 6.000000e-001 4.000000e-001 0.000000e+000 0.000000e+000
 0.000000e+000 0.000000e+000 0.000000e+000 0.000000e+000 0.000000e+000 6.000000e-001 4.000000e-001 0.000000e+000
 0.000000e+000 0.000000e+000 0.000000e+000 0.000000e+000 0.000000e+000 0.000000e+000 7.000000e-001 3.000000e-001
 0.000000e+000 0.000000e+000 0.000000e+000 0.000000e+000 0.000000e+000 0.000000e+000 0.000000e+000 0.000000e+000
<ENDHMM>
