~h "KOALAFEMALE1"
<BEGINHMM>
<NUMSTATES> 16
<STATE> 2
<MEAN> 12
 -1.573652e+001 -7.730632e-001 -3.164661e+000 -1.285716e+000 2.219002e+000 -1.296736e+000 -4.137251e+000 -6.913710e+000 -1.319728e+001 -9.030382e+000 -2.445637e+000 2.043366e+000
<VARIANCE> 12
 8.119618e+000 3.899958e+001 1.995214e+001 3.628837e+001 2.144309e+001 5.261061e+001 6.920408e+001 8.764109e+001 1.969928e+002 1.258846e+002 9.394038e+001 4.740605e+001
<GCONST> 6.865577e+001
<STATE> 3
<MEAN> 12
 -1.573652e+001 -7.730632e-001 -3.164661e+000 -1.285716e+000 2.219002e+000 -1.296736e+000 -4.137251e+000 -6.913710e+000 -1.319728e+001 -9.030382e+000 -2.445637e+000 2.043366e+000
<VARIANCE> 12
 8.119618e+000 3.899958e+001 1.995214e+001 3.628837e+001 2.144309e+001 5.261061e+001 6.920408e+001 8.764109e+001 1.969928e+002 1.258846e+002 9.394038e+001 4.740605e+001
<GCONST> 6.865577e+001
<STATE> 4
<MEAN> 12
 -1.573652e+001 -7.730632e-001 -3.164661e+000 -1.285716e+000 2.219002e+000 -1.296736e+000 -4.137251e+000 -6.913710e+000 -1.319728e+001 -9.030382e+000 -2.445637e+000 2.043366e+000
<VARIANCE> 12
 8.119618e+000 3.899958e+001 1.995214e+001 3.628837e+001 2.144309e+001 5.261061e+001 6.920408e+001 8.764109e+001 1.969928e+002 1.258846e+002 9.394038e+001 4.740605e+001
<GCONST> 6.865577e+001
<STATE> 5
<MEAN> 12
 -1.573652e+001 -7.730632e-001 -3.164661e+000 -1.285716e+000 2.219002e+000 -1.296736e+000 -4.137251e+000 -6.913710e+000 -1.319728e+001 -9.030382e+000 -2.445637e+000 2.043366e+000
<VARIANCE> 12
 8.119618e+000 3.899958e+001 1.995214e+001 3.628837e+001 2.144309e+001 5.261061e+001 6.920408e+001 8.764109e+001 1.969928e+002 1.258846e+002 9.394038e+001 4.740605e+001
<GCONST> 6.865577e+001
<STATE> 6
<MEAN> 12
 -1.573652e+001 -7.730632e-001 -3.164661e+000 -1.285716e+000 2.219002e+000 -1.296736e+000 -4.137251e+000 -6.913710e+000 -1.319728e+001 -9.030382e+000 -2.445637e+000 2.043366e+000
<VARIANCE> 12
 8.119618e+000 3.899958e+001 1.995214e+001 3.628837e+001 2.144309e+001 5.261061e+001 6.920408e+001 8.764109e+001 1.969928e+002 1.258846e+002 9.394038e+001 4.740605e+001
<GCONST> 6.865577e+001
<STATE> 7
<MEAN> 12
 -1.573652e+001 -7.730632e-001 -3.164661e+000 -1.285716e+000 2.219002e+000 -1.296736e+000 -4.137251e+000 -6.913710e+000 -1.319728e+001 -9.030382e+000 -2.445637e+000 2.043366e+000
<VARIANCE> 12
 8.119618e+000 3.899958e+001 1.995214e+001 3.628837e+001 2.144309e+001 5.261061e+001 6.920408e+001 8.764109e+001 1.969928e+002 1.258846e+002 9.394038e+001 4.740605e+001
<GCONST> 6.865577e+001
<STATE> 8
<MEAN> 12
 -1.573652e+001 -7.730632e-001 -3.164661e+000 -1.285716e+000 2.219002e+000 -1.296736e+000 -4.137251e+000 -6.913710e+000 -1.319728e+001 -9.030382e+000 -2.445637e+000 2.043366e+000
<VARIANCE> 12
 8.119618e+000 3.899958e+001 1.995214e+001 3.628837e+001 2.144309e+001 5.261061e+001 6.920408e+001 8.764109e+001 1.969928e+002 1.258846e+002 9.394038e+001 4.740605e+001
<GCONST> 6.865577e+001
<STATE> 9
<MEAN> 12
 -1.573652e+001 -7.730632e-001 -3.164661e+000 -1.285716e+000 2.219002e+000 -1.296736e+000 -4.137251e+000 -6.913710e+000 -1.319728e+001 -9.030382e+000 -2.445637e+000 2.043366e+000
<VARIANCE> 12
 8.119618e+000 3.899958e+001 1.995214e+001 3.628837e+001 2.144309e+001 5.261061e+001 6.920408e+001 8.764109e+001 1.969928e+002 1.258846e+002 9.394038e+001 4.740605e+001
<GCONST> 6.865577e+001
<STATE> 10
<MEAN> 12
 -1.573652e+001 -7.730632e-001 -3.164661e+000 -1.285716e+000 2.219002e+000 -1.296736e+000 -4.137251e+000 -6.913710e+000 -1.319728e+001 -9.030382e+000 -2.445637e+000 2.043366e+000
<VARIANCE> 12
 8.119618e+000 3.899958e+001 1.995214e+001 3.628837e+001 2.144309e+001 5.261061e+001 6.920408e+001 8.764109e+001 1.969928e+002 1.258846e+002 9.394038e+001 4.740605e+001
<GCONST> 6.865577e+001
<STATE> 11
<MEAN> 12
 -1.573652e+001 -7.730632e-001 -3.164661e+000 -1.285716e+000 2.219002e+000 -1.296736e+000 -4.137251e+000 -6.913710e+000 -1.319728e+001 -9.030382e+000 -2.445637e+000 2.043366e+000
<VARIANCE> 12
 8.119618e+000 3.899958e+001 1.995214e+001 3.628837e+001 2.144309e+001 5.261061e+001 6.920408e+001 8.764109e+001 1.969928e+002 1.258846e+002 9.394038e+001 4.740605e+001
<GCONST> 6.865577e+001
<STATE> 12
<MEAN> 12
 -1.573652e+001 -7.730632e-001 -3.164661e+000 -1.285716e+000 2.219002e+000 -1.296736e+000 -4.137251e+000 -6.913710e+000 -1.319728e+001 -9.030382e+000 -2.445637e+000 2.043366e+000
<VARIANCE> 12
 8.119618e+000 3.899958e+001 1.995214e+001 3.628837e+001 2.144309e+001 5.261061e+001 6.920408e+001 8.764109e+001 1.969928e+002 1.258846e+002 9.394038e+001 4.740605e+001
<GCONST> 6.865577e+001
<STATE> 13
<MEAN> 12
 -1.573652e+001 -7.730632e-001 -3.164661e+000 -1.285716e+000 2.219002e+000 -1.296736e+000 -4.137251e+000 -6.913710e+000 -1.319728e+001 -9.030382e+000 -2.445637e+000 2.043366e+000
<VARIANCE> 12
 8.119618e+000 3.899958e+001 1.995214e+001 3.628837e+001 2.144309e+001 5.261061e+001 6.920408e+001 8.764109e+001 1.969928e+002 1.258846e+002 9.394038e+001 4.740605e+001
<GCONST> 6.865577e+001
<STATE> 14
<MEAN> 12
 -1.573652e+001 -7.730632e-001 -3.164661e+000 -1.285716e+000 2.219002e+000 -1.296736e+000 -4.137251e+000 -6.913710e+000 -1.319728e+001 -9.030382e+000 -2.445637e+000 2.043366e+000
<VARIANCE> 12
 8.119618e+000 3.899958e+001 1.995214e+001 3.628837e+001 2.144309e+001 5.261061e+001 6.920408e+001 8.764109e+001 1.969928e+002 1.258846e+002 9.394038e+001 4.740605e+001
<GCONST> 6.865577e+001
<STATE> 15
<MEAN> 12
 -1.573652e+001 -7.730632e-001 -3.164661e+000 -1.285716e+000 2.219002e+000 -1.296736e+000 -4.137251e+000 -6.913710e+000 -1.319728e+001 -9.030382e+000 -2.445637e+000 2.043366e+000
<VARIANCE> 12
 8.119618e+000 3.899958e+001 1.995214e+001 3.628837e+001 2.144309e+001 5.261061e+001 6.920408e+001 8.764109e+001 1.969928e+002 1.258846e+002 9.394038e+001 4.740605e+001
<GCONST> 6.865577e+001
<TRANSP> 16
 0.000000e+000 1.000000e+000 0.000000e+000 0.000000e+000 0.000000e+000 0.000000e+000 0.000000e+000 0.000000e+000 0.000000e+000 0.000000e+000 0.000000e+000 0.000000e+000 0.000000e+000 0.000000e+000 0.000000e+000 0.000000e+000
 0.000000e+000 6.000000e-001 4.000000e-001 0.000000e+000 0.000000e+000 0.000000e+000 0.000000e+000 0.000000e+000 0.000000e+000 0.000000e+000 0.000000e+000 0.000000e+000 0.000000e+000 0.000000e+000 0.000000e+000 0.000000e+000
 0.000000e+000 0.000000e+000 6.000000e-001 4.000000e-001 0.000000e+000 0.000000e+000 0.000000e+000 0.000000e+000 0.000000e+000 0.000000e+000 0.000000e+000 0.000000e+000 0.000000e+000 0.000000e+000 0.000000e+000 0.000000e+000
 0.000000e+000 0.000000e+000 0.000000e+000 6.000000e-001 4.000000e-001 0.000000e+000 0.000000e+000 0.000000e+000 0.000000e+000 0.000000e+000 0.000000e+000 0.000000e+000 0.000000e+000 0.000000e+000 0.000000e+000 0.000000e+000
 0.000000e+000 0.000000e+000 0.000000e+000 0.000000e+000 6.000000e-001 4.000000e-001 0.000000e+000 0.000000e+000 0.000000e+000 0.000000e+000 0.000000e+000 0.000000e+000 0.000000e+000 0.000000e+000 0.000000e+000 0.000000e+000
 0.000000e+000 0.000000e+000 0.000000e+000 0.000000e+000 0.000000e+000 6.000000e-001 4.000000e-001 0.000000e+000 0.000000e+000 0.000000e+000 0.000000e+000 0.000000e+000 0.000000e+000 0.000000e+000 0.000000e+000 0.000000e+000
 0.000000e+000 0.000000e+000 0.000000e+000 0.000000e+000 0.000000e+000 0.000000e+000 6.000000e-001 4.000000e-001 0.000000e+000 0.000000e+000 0.000000e+000 0.000000e+000 0.000000e+000 0.000000e+000 0.000000e+000 0.000000e+000
 0.000000e+000 0.000000e+000 0.000000e+000 0.000000e+000 0.000000e+000 0.000000e+000 0.000000e+000 6.000000e-001 4.000000e-001 0.000000e+000 0.000000e+000 0.000000e+000 0.000000e+000 0.000000e+000 0.000000e+000 0.000000e+000
 0.000000e+000 0.000000e+000 0.000000e+000 0.000000e+000 0.000000e+000 0.000000e+000 0.000000e+000 0.000000e+000 6.000000e-001 4.000000e-001 0.000000e+000 0.000000e+000 0.000000e+000 0.000000e+000 0.000000e+000 0.000000e+000
 0.000000e+000 0.000000e+000 0.000000e+000 0.000000e+000 0.000000e+000 0.000000e+000 0.000000e+000 0.000000e+000 0.000000e+000 6.000000e-001 4.000000e-001 0.000000e+000 0.000000e+000 0.000000e+000 0.000000e+000 0.000000e+000
 0.000000e+000 0.000000e+000 0.000000e+000 0.000000e+000 0.000000e+000 0.000000e+000 0.000000e+000 0.000000e+000 0.000000e+000 0.000000e+000 6.000000e-001 4.000000e-001 0.000000e+000 0.000000e+000 0.000000e+000 0.000000e+000
 0.000000e+000 0.000000e+000 0.000000e+000 0.000000e+000 0.000000e+000 0.000000e+000 0.000000e+000 0.000000e+000 0.000000e+000 0.000000e+000 0.000000e+000 6.000000e-001 4.000000e-001 0.000000e+000 0.000000e+000 0.000000e+000
 0.000000e+000 0.000000e+000 0.000000e+000 0.000000e+000 0.000000e+000 0.000000e+000 0.000000e+000 0.000000e+000 0.000000e+000 0.000000e+000 0.000000e+000 0.000000e+000 6.000000e-001 4.000000e-001 0.000000e+000 0.000000e+000
 0.000000e+000 0.000000e+000 0.000000e+000 0.000000e+000 0.000000e+000 0.000000e+000 0.000000e+000 0.000000e+000 0.000000e+000 0.000000e+000 0.000000e+000 0.000000e+000 0.000000e+000 6.000000e-001 4.000000e-001 0.000000e+000
 0.000000e+000 0.000000e+000 0.000000e+000 0.000000e+000 0.000000e+000 0.000000e+000 0.000000e+000 0.000000e+000 0.000000e+000 0.000000e+000 0.000000e+000 0.000000e+000 0.000000e+000 0.000000e+000 7.000000e-001 3.000000e-001
 0.000000e+000 0.000000e+000 0.000000e+000 0.000000e+000 0.000000e+000 0.000000e+000 0.000000e+000 0.000000e+000 0.000000e+000 0.000000e+000 0.000000e+000 0.000000e+000 0.000000e+000 0.000000e+000 0.000000e+000 0.000000e+000
<ENDHMM>
~h "SIL"
<BEGINHMM>
<NUMSTATES> 5
<STATE> 2
<MEAN> 12
 -1.573652e+001 -7.730632e-001 -3.164661e+000 -1.285716e+000 2.219002e+000 -1.296736e+000 -4.137251e+000 -6.913710e+000 -1.319728e+001 -9.030382e+000 -2.445637e+000 2.043366e+000
<VARIANCE> 12
 8.119618e+000 3.899958e+001 1.995214e+001 3.628837e+001 2.144309e+001 5.261061e+001 6.920408e+001 8.764109e+001 1.969928e+002 1.258846e+002 9.394038e+001 4.740605e+001
<GCONST> 6.865577e+001
<STATE> 3
<MEAN> 12
 -1.573652e+001 -7.730632e-001 -3.164661e+000 -1.285716e+000 2.219002e+000 -1.296736e+000 -4.137251e+000 -6.913710e+000 -1.319728e+001 -9.030382e+000 -2.445637e+000 2.043366e+000
<VARIANCE> 12
 8.119618e+000 3.899958e+001 1.995214e+001 3.628837e+001 2.144309e+001 5.261061e+001 6.920408e+001 8.764109e+001 1.969928e+002 1.258846e+002 9.394038e+001 4.740605e+001
<GCONST> 6.865577e+001
<STATE> 4
<MEAN> 12
 -1.573652e+001 -7.730632e-001 -3.164661e+000 -1.285716e+000 2.219002e+000 -1.296736e+000 -4.137251e+000 -6.913710e+000 -1.319728e+001 -9.030382e+000 -2.445637e+000 2.043366e+000
<VARIANCE> 12
 8.119618e+000 3.899958e+001 1.995214e+001 3.628837e+001 2.144309e+001 5.261061e+001 6.920408e+001 8.764109e+001 1.969928e+002 1.258846e+002 9.394038e+001 4.740605e+001
<GCONST> 6.865577e+001
<TRANSP> 5
0.000e+0 1.000e+0 0.000e+0 0.000e+0 0.000e+0
0.000e+0 4.000e-1 2.000e-1 4.000e-1 0.000e+0
0.000e+0 0.000e+0 6.000e-1 4.000e-1 0.000e+0
0.000e+0 4.000e-1 0.000e+0 3.000e-1 3.000e-1
0.000e+0 0.000e+0 0.000e+0 0.000e+0 0.000e+0

<ENDHMM>
