~o
<STREAMINFO> 1 12
<VECSIZE> 12<NULLD><MFCC><DIAGC>
~h "proto"
<BEGINHMM>
<NUMSTATES> 8
<STATE> 2
<MEAN> 12
 -9.631094e+000 -9.888803e+000 -1.534829e+001 -7.905089e+000 6.726279e+000 -7.932526e+000 3.075714e-002 2.265370e+000 4.309356e+000 -1.113266e+000 1.350442e+000 -4.312778e+000
<VARIANCE> 12
 2.078266e+001 2.403820e+001 6.651482e+001 1.232139e+002 2.145602e+002 1.673223e+002 9.505800e+001 8.394781e+001 1.101564e+002 1.204225e+002 8.091716e+001 5.902150e+001
<GCONST> 7.471707e+001
<STATE> 3
<MEAN> 12
 -9.631094e+000 -9.888803e+000 -1.534829e+001 -7.905089e+000 6.726279e+000 -7.932526e+000 3.075714e-002 2.265370e+000 4.309356e+000 -1.113266e+000 1.350442e+000 -4.312778e+000
<VARIANCE> 12
 2.078266e+001 2.403820e+001 6.651482e+001 1.232139e+002 2.145602e+002 1.673223e+002 9.505800e+001 8.394781e+001 1.101564e+002 1.204225e+002 8.091716e+001 5.902150e+001
<GCONST> 7.471707e+001
<STATE> 4
<MEAN> 12
 -9.631094e+000 -9.888803e+000 -1.534829e+001 -7.905089e+000 6.726279e+000 -7.932526e+000 3.075714e-002 2.265370e+000 4.309356e+000 -1.113266e+000 1.350442e+000 -4.312778e+000
<VARIANCE> 12
 2.078266e+001 2.403820e+001 6.651482e+001 1.232139e+002 2.145602e+002 1.673223e+002 9.505800e+001 8.394781e+001 1.101564e+002 1.204225e+002 8.091716e+001 5.902150e+001
<GCONST> 7.471707e+001
<STATE> 5
<MEAN> 12
 -9.631094e+000 -9.888803e+000 -1.534829e+001 -7.905089e+000 6.726279e+000 -7.932526e+000 3.075714e-002 2.265370e+000 4.309356e+000 -1.113266e+000 1.350442e+000 -4.312778e+000
<VARIANCE> 12
 2.078266e+001 2.403820e+001 6.651482e+001 1.232139e+002 2.145602e+002 1.673223e+002 9.505800e+001 8.394781e+001 1.101564e+002 1.204225e+002 8.091716e+001 5.902150e+001
<GCONST> 7.471707e+001
<STATE> 6
<MEAN> 12
 -9.631094e+000 -9.888803e+000 -1.534829e+001 -7.905089e+000 6.726279e+000 -7.932526e+000 3.075714e-002 2.265370e+000 4.309356e+000 -1.113266e+000 1.350442e+000 -4.312778e+000
<VARIANCE> 12
 2.078266e+001 2.403820e+001 6.651482e+001 1.232139e+002 2.145602e+002 1.673223e+002 9.505800e+001 8.394781e+001 1.101564e+002 1.204225e+002 8.091716e+001 5.902150e+001
<GCONST> 7.471707e+001
<STATE> 7
<MEAN> 12
 -9.631094e+000 -9.888803e+000 -1.534829e+001 -7.905089e+000 6.726279e+000 -7.932526e+000 3.075714e-002 2.265370e+000 4.309356e+000 -1.113266e+000 1.350442e+000 -4.312778e+000
<VARIANCE> 12
 2.078266e+001 2.403820e+001 6.651482e+001 1.232139e+002 2.145602e+002 1.673223e+002 9.505800e+001 8.394781e+001 1.101564e+002 1.204225e+002 8.091716e+001 5.902150e+001
<GCONST> 7.471707e+001
<TRANSP> 8
 0.000000e+000 1.000000e+000 0.000000e+000 0.000000e+000 0.000000e+000 0.000000e+000 0.000000e+000 0.000000e+000
 0.000000e+000 6.000000e-001 4.000000e-001 0.000000e+000 0.000000e+000 0.000000e+000 0.000000e+000 0.000000e+000
 0.000000e+000 0.000000e+000 6.000000e-001 4.000000e-001 0.000000e+000 0.000000e+000 0.000000e+000 0.000000e+000
 0.000000e+000 0.000000e+000 0.000000e+000 6.000000e-001 4.000000e-001 0.000000e+000 0.000000e+000 0.000000e+000
 0.000000e+000 0.000000e+000 0.000000e+000 0.000000e+000 6.000000e-001 4.000000e-001 0.000000e+000 0.000000e+000
 0.000000e+000 0.000000e+000 0.000000e+000 0.000000e+000 0.000000e+000 6.000000e-001 4.000000e-001 0.000000e+000
 0.000000e+000 0.000000e+000 0.000000e+000 0.000000e+000 0.000000e+000 0.000000e+000 7.000000e-001 3.000000e-001
 0.000000e+000 0.000000e+000 0.000000e+000 0.000000e+000 0.000000e+000 0.000000e+000 0.000000e+000 0.000000e+000
<ENDHMM>
