~o
<STREAMINFO> 1 12
<VECSIZE> 12<NULLD><MFCC><DIAGC>
~h "proto"
<BEGINHMM>
<NUMSTATES> 8
<STATE> 2
<MEAN> 12
 -6.537333e+000 -1.190648e+001 -8.556922e+000 -1.820913e+001 -2.335625e-001 4.258605e+000 -6.999479e+000 -1.658502e+000 1.560710e+000 4.254095e+000 2.048237e+000 -2.832465e-002
<VARIANCE> 12
 1.814943e+001 2.587048e+001 3.478436e+001 8.978341e+001 1.256665e+002 2.120795e+002 1.841099e+002 9.070007e+001 5.781642e+001 8.422238e+001 1.083740e+002 6.839885e+001
<GCONST> 7.356820e+001
<STATE> 3
<MEAN> 12
 -6.537333e+000 -1.190648e+001 -8.556922e+000 -1.820913e+001 -2.335625e-001 4.258605e+000 -6.999479e+000 -1.658502e+000 1.560710e+000 4.254095e+000 2.048237e+000 -2.832465e-002
<VARIANCE> 12
 1.814943e+001 2.587048e+001 3.478436e+001 8.978341e+001 1.256665e+002 2.120795e+002 1.841099e+002 9.070007e+001 5.781642e+001 8.422238e+001 1.083740e+002 6.839885e+001
<GCONST> 7.356820e+001
<STATE> 4
<MEAN> 12
 -6.537333e+000 -1.190648e+001 -8.556922e+000 -1.820913e+001 -2.335625e-001 4.258605e+000 -6.999479e+000 -1.658502e+000 1.560710e+000 4.254095e+000 2.048237e+000 -2.832465e-002
<VARIANCE> 12
 1.814943e+001 2.587048e+001 3.478436e+001 8.978341e+001 1.256665e+002 2.120795e+002 1.841099e+002 9.070007e+001 5.781642e+001 8.422238e+001 1.083740e+002 6.839885e+001
<GCONST> 7.356820e+001
<STATE> 5
<MEAN> 12
 -6.537333e+000 -1.190648e+001 -8.556922e+000 -1.820913e+001 -2.335625e-001 4.258605e+000 -6.999479e+000 -1.658502e+000 1.560710e+000 4.254095e+000 2.048237e+000 -2.832465e-002
<VARIANCE> 12
 1.814943e+001 2.587048e+001 3.478436e+001 8.978341e+001 1.256665e+002 2.120795e+002 1.841099e+002 9.070007e+001 5.781642e+001 8.422238e+001 1.083740e+002 6.839885e+001
<GCONST> 7.356820e+001
<STATE> 6
<MEAN> 12
 -6.537333e+000 -1.190648e+001 -8.556922e+000 -1.820913e+001 -2.335625e-001 4.258605e+000 -6.999479e+000 -1.658502e+000 1.560710e+000 4.254095e+000 2.048237e+000 -2.832465e-002
<VARIANCE> 12
 1.814943e+001 2.587048e+001 3.478436e+001 8.978341e+001 1.256665e+002 2.120795e+002 1.841099e+002 9.070007e+001 5.781642e+001 8.422238e+001 1.083740e+002 6.839885e+001
<GCONST> 7.356820e+001
<STATE> 7
<MEAN> 12
 -6.537333e+000 -1.190648e+001 -8.556922e+000 -1.820913e+001 -2.335625e-001 4.258605e+000 -6.999479e+000 -1.658502e+000 1.560710e+000 4.254095e+000 2.048237e+000 -2.832465e-002
<VARIANCE> 12
 1.814943e+001 2.587048e+001 3.478436e+001 8.978341e+001 1.256665e+002 2.120795e+002 1.841099e+002 9.070007e+001 5.781642e+001 8.422238e+001 1.083740e+002 6.839885e+001
<GCONST> 7.356820e+001
<TRANSP> 8
 0.000000e+000 1.000000e+000 0.000000e+000 0.000000e+000 0.000000e+000 0.000000e+000 0.000000e+000 0.000000e+000
 0.000000e+000 6.000000e-001 4.000000e-001 0.000000e+000 0.000000e+000 0.000000e+000 0.000000e+000 0.000000e+000
 0.000000e+000 0.000000e+000 6.000000e-001 4.000000e-001 0.000000e+000 0.000000e+000 0.000000e+000 0.000000e+000
 0.000000e+000 0.000000e+000 0.000000e+000 6.000000e-001 4.000000e-001 0.000000e+000 0.000000e+000 0.000000e+000
 0.000000e+000 0.000000e+000 0.000000e+000 0.000000e+000 6.000000e-001 4.000000e-001 0.000000e+000 0.000000e+000
 0.000000e+000 0.000000e+000 0.000000e+000 0.000000e+000 0.000000e+000 6.000000e-001 4.000000e-001 0.000000e+000
 0.000000e+000 0.000000e+000 0.000000e+000 0.000000e+000 0.000000e+000 0.000000e+000 7.000000e-001 3.000000e-001
 0.000000e+000 0.000000e+000 0.000000e+000 0.000000e+000 0.000000e+000 0.000000e+000 0.000000e+000 0.000000e+000
<ENDHMM>
