~o
<STREAMINFO> 1 12
<VECSIZE> 12<NULLD><MFCC><DIAGC>
~h "SIL"
<BEGINHMM>
<NUMSTATES> 5
<STATE> 2
<MEAN> 12
 -1.403289e+001 5.253291e-002 -1.942102e+000 -1.849334e+000 -3.870938e-001 -2.206789e+000 -6.273412e-001 -1.590582e+000 -1.803780e+000 -1.889701e+000 -6.893283e-001 -1.340902e+000
<VARIANCE> 12
 5.535017e+000 6.630943e+000 8.075107e+000 9.894430e+000 1.152155e+001 1.558160e+001 1.667491e+001 1.946057e+001 2.584070e+001 2.075457e+001 1.831739e+001 1.346983e+001
<GCONST> 5.280375e+001
<STATE> 3
<MEAN> 12
 -1.708457e+001 2.564866e+000 -5.886133e+000 6.427453e-001 2.573584e-001 9.008168e+000 4.723396e+000 -2.873515e+000 -2.168469e+001 -1.887042e+001 -1.617556e+001 6.001329e-001
<VARIANCE> 12
 1.718579e+000 8.428952e+000 7.596675e+000 7.721310e+000 1.362586e+001 1.812292e+001 2.741172e+001 3.327872e+001 4.605562e+001 3.647734e+001 3.924953e+001 5.003244e+001
<GCONST> 5.613358e+001
<STATE> 4
<MEAN> 12
 -1.562103e+001 1.063734e+000 -2.703912e+000 -1.907131e+000 1.024805e+000 -1.194635e+000 -8.934531e-001 -2.749906e+000 -1.323023e+000 -2.999026e+000 -1.703113e+000 -3.443525e-001
<VARIANCE> 12
 1.331087e+001 1.030781e+001 1.241705e+001 1.342632e+001 1.303202e+001 1.769500e+001 1.675587e+001 3.237856e+001 4.925719e+001 3.302761e+001 2.270802e+001 1.616426e+001
<GCONST> 5.712916e+001
<TRANSP> 5
 0.000000e+000 1.000000e+000 0.000000e+000 0.000000e+000 0.000000e+000
 0.000000e+000 5.797500e-001 2.827224e-002 3.919778e-001 0.000000e+000
 0.000000e+000 0.000000e+000 9.658357e-001 3.416433e-002 0.000000e+000
 0.000000e+000 3.809541e-001 0.000000e+000 2.784037e-001 3.406422e-001
 0.000000e+000 0.000000e+000 0.000000e+000 0.000000e+000 0.000000e+000
<ENDHMM>
~h "KOALAFEMALE1"
<BEGINHMM>
<NUMSTATES> 16
<STATE> 2
<MEAN> 12
 -1.724767e+001 1.383958e+000 1.549066e+000 -5.819914e+000 2.223470e+000 -2.236134e+000 -2.006667e+000 -2.039912e+000 -7.965324e-001 -2.990567e+000 -1.476498e+000 3.964192e-002
<VARIANCE> 12
 1.435049e+001 2.313048e+001 2.385695e+001 1.634794e+001 1.016074e+001 1.716975e+001 1.683248e+001 2.652456e+001 5.956750e+001 3.827247e+001 1.710170e+001 1.656631e+001
<GCONST> 5.846709e+001
<STATE> 3
<MEAN> 12
 -1.496307e+001 -4.036772e+000 -9.751626e-001 -1.178731e+000 1.908123e+000 3.275503e+000 3.620271e+000 -2.844276e+000 -1.165787e+001 -1.371163e+001 -1.597123e+001 -6.088601e-001
<VARIANCE> 12
 8.138983e+000 2.124631e+001 1.756609e+001 1.840094e+001 1.498215e+001 2.314188e+001 4.572403e+001 3.492057e+001 8.331670e+001 6.849495e+001 1.046846e+002 3.195307e+001
<GCONST> 6.297458e+001
<STATE> 4
<MEAN> 12
 -1.692211e+001 -2.943899e+000 -3.319648e+000 1.177802e+000 5.161501e+000 5.552020e-001 -2.010077e+000 -5.334413e+000 -1.343555e+001 -1.276938e+001 -8.880266e+000 2.767239e+000
<VARIANCE> 12
 1.066107e+001 1.676376e+001 2.880743e+001 3.160190e+001 2.102225e+001 1.988378e+001 3.330355e+001 3.558922e+001 1.350669e+002 8.779221e+001 6.988571e+001 3.694024e+001
<GCONST> 6.440429e+001
<STATE> 5
<MEAN> 12
 -1.634934e+001 -3.700857e+000 -3.309016e+000 4.374417e-001 4.390934e+000 -1.352664e+000 -4.208130e+000 -5.806750e+000 -9.412897e+000 -9.810957e+000 -5.149805e+000 2.494037e-001
<VARIANCE> 12
 1.216761e+001 3.042800e+001 1.830365e+001 6.367459e+001 2.355564e+001 3.478206e+001 3.111190e+001 3.408670e+001 2.131342e+002 1.720046e+002 4.108419e+001 4.989773e+001
<GCONST> 6.683956e+001
<STATE> 6
<MEAN> 12
 -1.470600e+001 -1.160049e+001 -1.685983e+000 -9.193276e+000 5.194355e+000 2.609340e+000 -3.467009e+000 -5.933499e+000 -8.407653e+000 -2.469787e+000 1.235227e+000 2.119173e+000
<VARIANCE> 12
 4.255652e+000 3.027672e+001 1.185430e+001 4.312078e+001 1.692612e+001 2.079301e+001 1.978941e+001 3.818125e+001 6.830319e+001 7.394855e+001 3.607190e+001 3.348670e+001
<GCONST> 6.126480e+001
<STATE> 7
<MEAN> 12
 -1.620680e+001 -9.710661e+000 -4.035185e+000 -1.188238e+000 7.089917e+000 -8.409482e-001 -8.860793e+000 -6.725546e+000 -7.698572e+000 -6.069241e+000 -1.986876e+000 2.072282e+000
<VARIANCE> 12
 5.465392e+000 7.343471e+001 1.116255e+001 5.019753e+001 2.799204e+001 3.778918e+001 4.180843e+001 5.436618e+001 2.328775e+002 1.330770e+002 3.323154e+001 3.828241e+001
<GCONST> 6.656060e+001
<STATE> 8
<MEAN> 12
 -1.772516e+001 -2.778096e+000 -2.975992e+000 2.076150e+000 2.586571e+000 -1.681295e+000 -9.548261e+000 -1.099496e+001 -2.461900e+001 -1.696450e+001 2.897941e-001 9.982347e+000
<VARIANCE> 12
 7.403858e+000 4.344555e+001 1.643420e+001 4.295865e+001 2.148632e+001 3.305849e+001 3.867276e+001 6.699280e+001 2.442850e+002 1.874398e+002 4.615022e+001 8.987884e+001
<GCONST> 6.787521e+001
<STATE> 9
<MEAN> 12
 -1.648042e+001 1.912328e+000 -3.127096e+000 -1.017686e+000 4.642504e+000 -1.073921e+001 -8.939107e+000 -2.139314e+001 -2.971333e+001 -1.210047e+001 5.275169e+000 5.966797e+000
<VARIANCE> 12
 3.878204e+000 5.238521e+001 9.726481e+000 2.535072e+001 2.516042e+001 6.329843e+001 2.785898e+001 9.469662e+001 1.650832e+002 4.697342e+001 4.632790e+001 4.135565e+001
<GCONST> 6.464114e+001
<STATE> 10
<MEAN> 12
 -1.591356e+001 4.221398e-001 -6.771732e+000 -2.758109e-001 3.295439e+000 -8.710197e+000 -1.563536e+001 -2.107797e+001 -2.063126e+001 -4.458637e+000 7.397750e+000 2.211763e+000
<VARIANCE> 12
 2.815452e+000 6.950743e+001 1.059428e+001 1.845071e+001 2.135142e+001 3.192548e+001 5.365045e+001 8.366822e+001 1.476401e+002 7.958582e+001 5.156605e+001 3.038353e+001
<GCONST> 6.426875e+001
<STATE> 11
<MEAN> 12
 -1.422415e+001 9.979956e-001 -7.469224e+000 -1.144043e-001 3.539395e+000 -5.511415e+000 -1.745968e+001 -2.006183e+001 -2.213709e+001 1.417978e-001 5.497009e+000 4.307496e+000
<VARIANCE> 12
 3.845847e+000 3.392414e+001 2.577782e+001 2.125977e+001 2.091289e+001 4.045249e+001 1.858658e+002 1.322060e+002 1.477256e+002 2.354145e+002 8.547146e+001 4.534035e+001
<GCONST> 6.880094e+001
<STATE> 12
<MEAN> 12
 -1.622129e+001 1.604743e+000 -5.704737e+000 4.534734e+000 3.008085e+000 -8.678161e-001 -8.829897e+000 -8.680574e+000 -2.985780e+001 -2.393220e+001 -1.177168e+000 1.053190e+001
<VARIANCE> 12
 4.837197e+000 1.629116e+001 9.337940e+000 1.647986e+001 1.492325e+001 4.600334e+001 2.791767e+001 4.074778e+001 6.480087e+001 7.564524e+001 3.869213e+001 3.769795e+001
<GCONST> 6.080862e+001
<STATE> 13
<MEAN> 12
 -1.607491e+001 3.951165e-001 -2.317245e+000 1.397738e+000 3.457161e+000 -2.461723e+000 -1.898565e+000 -6.619707e+000 -1.641852e+001 -1.472872e+001 -8.255383e+000 1.858963e+000
<VARIANCE> 12
 4.959359e+000 2.554890e+001 1.675776e+001 4.064316e+001 2.585881e+001 5.389780e+001 3.542989e+001 6.322358e+001 1.039043e+002 7.903699e+001 5.957092e+001 3.050247e+001
<GCONST> 6.489243e+001
<STATE> 14
<MEAN> 12
 -1.585908e+001 5.269330e-002 -3.912722e+000 1.733041e+000 4.516119e+000 -3.389689e+000 -1.530326e+000 -2.957897e+000 -6.205120e+000 -7.487412e+000 -9.575356e+000 -4.536033e+000
<VARIANCE> 12
 5.993921e+000 1.610139e+001 1.607662e+001 3.587291e+001 2.172300e+001 3.209411e+001 5.728130e+001 6.697062e+001 7.153010e+001 6.284443e+001 6.172328e+001 3.062391e+001
<GCONST> 6.373602e+001
<STATE> 15
<MEAN> 12
 -1.375357e+001 -4.918599e+000 1.166489e+000 -7.635602e+000 -1.144627e+000 -5.513712e+000 -8.912049e+000 -5.759598e+000 -5.432932e+000 -1.668544e+000 7.326070e+000 1.438980e+000
<VARIANCE> 12
 1.277554e+001 2.286081e+001 2.304967e+001 4.914280e+001 2.539378e+001 1.739283e+001 3.109541e+001 3.712241e+001 4.612059e+001 2.319971e+001 7.840530e+001 2.020581e+001
<GCONST> 6.224897e+001
<TRANSP> 16
 0.000000e+000 1.000000e+000 0.000000e+000 0.000000e+000 0.000000e+000 0.000000e+000 0.000000e+000 0.000000e+000 0.000000e+000 0.000000e+000 0.000000e+000 0.000000e+000 0.000000e+000 0.000000e+000 0.000000e+000 0.000000e+000
 0.000000e+000 8.150886e-001 1.849114e-001 0.000000e+000 0.000000e+000 0.000000e+000 0.000000e+000 0.000000e+000 0.000000e+000 0.000000e+000 0.000000e+000 0.000000e+000 0.000000e+000 0.000000e+000 0.000000e+000 0.000000e+000
 0.000000e+000 0.000000e+000 5.809677e-001 4.190323e-001 0.000000e+000 0.000000e+000 0.000000e+000 0.000000e+000 0.000000e+000 0.000000e+000 0.000000e+000 0.000000e+000 0.000000e+000 0.000000e+000 0.000000e+000 0.000000e+000
 0.000000e+000 0.000000e+000 0.000000e+000 3.402041e-001 6.597958e-001 0.000000e+000 0.000000e+000 0.000000e+000 0.000000e+000 0.000000e+000 0.000000e+000 0.000000e+000 0.000000e+000 0.000000e+000 0.000000e+000 0.000000e+000
 0.000000e+000 0.000000e+000 0.000000e+000 0.000000e+000 1.261682e-001 8.738318e-001 0.000000e+000 0.000000e+000 0.000000e+000 0.000000e+000 0.000000e+000 0.000000e+000 0.000000e+000 0.000000e+000 0.000000e+000 0.000000e+000
 0.000000e+000 0.000000e+000 0.000000e+000 0.000000e+000 0.000000e+000 7.766936e-001 2.233064e-001 0.000000e+000 0.000000e+000 0.000000e+000 0.000000e+000 0.000000e+000 0.000000e+000 0.000000e+000 0.000000e+000 0.000000e+000
 0.000000e+000 0.000000e+000 0.000000e+000 0.000000e+000 0.000000e+000 0.000000e+000 4.060646e-001 5.939354e-001 0.000000e+000 0.000000e+000 0.000000e+000 0.000000e+000 0.000000e+000 0.000000e+000 0.000000e+000 0.000000e+000
 0.000000e+000 0.000000e+000 0.000000e+000 0.000000e+000 0.000000e+000 0.000000e+000 0.000000e+000 4.918863e-001 5.081136e-001 0.000000e+000 0.000000e+000 0.000000e+000 0.000000e+000 0.000000e+000 0.000000e+000 0.000000e+000
 0.000000e+000 0.000000e+000 0.000000e+000 0.000000e+000 0.000000e+000 0.000000e+000 0.000000e+000 0.000000e+000 7.284197e-001 2.715803e-001 0.000000e+000 0.000000e+000 0.000000e+000 0.000000e+000 0.000000e+000 0.000000e+000
 0.000000e+000 0.000000e+000 0.000000e+000 0.000000e+000 0.000000e+000 0.000000e+000 0.000000e+000 0.000000e+000 0.000000e+000 7.874634e-001 2.125366e-001 0.000000e+000 0.000000e+000 0.000000e+000 0.000000e+000 0.000000e+000
 0.000000e+000 0.000000e+000 0.000000e+000 0.000000e+000 0.000000e+000 0.000000e+000 0.000000e+000 0.000000e+000 0.000000e+000 0.000000e+000 5.174415e-001 4.825585e-001 0.000000e+000 0.000000e+000 0.000000e+000 0.000000e+000
 0.000000e+000 0.000000e+000 0.000000e+000 0.000000e+000 0.000000e+000 0.000000e+000 0.000000e+000 0.000000e+000 0.000000e+000 0.000000e+000 0.000000e+000 8.638968e-001 1.361031e-001 0.000000e+000 0.000000e+000 0.000000e+000
 0.000000e+000 0.000000e+000 0.000000e+000 0.000000e+000 0.000000e+000 0.000000e+000 0.000000e+000 0.000000e+000 0.000000e+000 0.000000e+000 0.000000e+000 0.000000e+000 4.582169e-001 5.417832e-001 0.000000e+000 0.000000e+000
 0.000000e+000 0.000000e+000 0.000000e+000 0.000000e+000 0.000000e+000 0.000000e+000 0.000000e+000 0.000000e+000 0.000000e+000 0.000000e+000 0.000000e+000 0.000000e+000 0.000000e+000 6.725029e-001 3.274971e-001 0.000000e+000
 0.000000e+000 0.000000e+000 0.000000e+000 0.000000e+000 0.000000e+000 0.000000e+000 0.000000e+000 0.000000e+000 0.000000e+000 0.000000e+000 0.000000e+000 0.000000e+000 0.000000e+000 0.000000e+000 7.393676e-001 2.606324e-001
 0.000000e+000 0.000000e+000 0.000000e+000 0.000000e+000 0.000000e+000 0.000000e+000 0.000000e+000 0.000000e+000 0.000000e+000 0.000000e+000 0.000000e+000 0.000000e+000 0.000000e+000 0.000000e+000 0.000000e+000 0.000000e+000
<ENDHMM>
