~o
<STREAMINFO> 1 12
<VECSIZE> 12<NULLD><MFCC><DIAGC>
~h "SIL"
<BEGINHMM>
<NUMSTATES> 5
<STATE> 2
<MEAN> 12
 -1.187385e+001 -9.719537e-001 2.461666e+000 -4.221341e+000 -1.699441e-002 -3.208214e+000 -8.194615e-001 -1.066059e+000 -2.928618e+000 -2.322532e+000 -1.144441e+000 -5.564690e-002
<VARIANCE> 12
 5.510475e+000 1.205562e+001 1.172193e+001 1.074559e+001 1.784808e+001 4.372407e+001 3.754087e+001 3.118163e+001 3.442603e+001 3.165359e+001 3.633198e+001 2.239507e+001
<GCONST> 5.850693e+001
<STATE> 3
<MEAN> 12
 -9.735228e+000 -1.754424e-001 -1.354241e-001 -1.034492e+001 -1.154876e+001 -1.319350e+001 1.996255e+000 2.206794e+000 9.351798e-001 1.022188e+001 7.981409e+000 3.433165e+000
<VARIANCE> 12
 4.575755e+000 1.110359e+001 1.261227e+001 1.917424e+001 2.611987e+001 7.428020e+001 7.845162e+001 2.962870e+001 5.810401e+001 1.193347e+002 6.161646e+001 5.667355e+001
<GCONST> 6.379498e+001
<STATE> 4
<MEAN> 12
 -1.209885e+001 -1.038048e+000 2.012056e+000 -4.742257e+000 -6.682348e-001 -3.247512e+000 -1.459320e-001 1.620612e-002 -2.380820e+000 -1.077318e+000 -2.924129e-001 -9.895739e-002
<VARIANCE> 12
 5.873083e+000 1.127226e+001 1.151577e+001 1.242757e+001 2.724931e+001 4.445291e+001 3.611564e+001 3.435026e+001 3.769576e+001 3.965678e+001 3.661544e+001 2.309157e+001
<GCONST> 5.948343e+001
<TRANSP> 5
 0.000000e+000 1.000000e+000 0.000000e+000 0.000000e+000 0.000000e+000
 0.000000e+000 5.653659e-001 3.149584e-002 4.031383e-001 0.000000e+000
 0.000000e+000 0.000000e+000 9.324490e-001 6.755097e-002 0.000000e+000
 0.000000e+000 5.864399e-001 0.000000e+000 3.322282e-001 8.133198e-002
 0.000000e+000 0.000000e+000 0.000000e+000 0.000000e+000 0.000000e+000
<ENDHMM>
~h "CURLEW1"
<BEGINHMM>
<NUMSTATES> 8
<STATE> 2
<MEAN> 12
 -8.961024e+000 -2.982014e+000 -1.316994e+000 -1.918676e+001 -1.888660e+001 -3.943762e+000 1.514699e+001 8.529234e+000 1.548923e+001 1.114033e+001 -9.200449e+000 -1.424899e+001
<VARIANCE> 12
 4.144293e+000 9.352937e+000 1.468236e+001 2.608721e+001 3.546795e+001 6.146537e+001 6.494044e+001 2.752785e+001 4.303661e+001 1.187407e+002 1.181189e+002 3.486085e+001
<GCONST> 6.369786e+001
<STATE> 3
<MEAN> 12
 -1.132237e+001 -4.456494e+000 -5.292384e+000 -2.570945e+001 -1.236047e+001 2.117309e+001 1.555258e+001 3.378258e+000 1.227517e+001 -2.266280e+001 -1.384657e+001 2.006146e+000
<VARIANCE> 12
 6.627180e+000 8.714429e+000 1.447718e+001 2.766743e+001 4.633824e+001 1.782778e+002 1.378858e+002 3.558397e+001 1.526917e+002 2.078331e+002 1.726052e+002 8.442394e+001
<GCONST> 6.957316e+001
<STATE> 4
<MEAN> 12
 -9.969664e+000 -8.408392e-001 -3.074770e+000 -2.035191e+001 -2.055435e+001 -8.845226e+000 1.397567e+001 9.699965e+000 6.793879e+000 1.459897e+001 -2.449145e+000 -5.182068e+000
<VARIANCE> 12
 8.001346e+000 8.423002e+000 1.466567e+001 3.391949e+001 4.525824e+001 1.155268e+002 1.052576e+002 4.166269e+001 9.103918e+001 1.590171e+002 1.364738e+002 6.105761e+001
<GCONST> 6.803075e+001
<STATE> 5
<MEAN> 12
 -8.950218e+000 -1.864454e-001 4.420188e+000 -1.401270e+001 -1.568710e+001 -2.179064e+001 -9.427076e+000 6.764599e+000 -8.550204e+000 1.347554e+001 1.687077e+001 7.225732e+000
<VARIANCE> 12
 5.145897e+000 1.670461e+001 1.519658e+001 1.993165e+001 2.310654e+001 5.378152e+001 1.064150e+002 5.911023e+001 9.072935e+001 1.327447e+002 8.110777e+001 3.731233e+001
<GCONST> 6.550500e+001
<STATE> 6
<MEAN> 12
 -8.412660e+000 6.174389e-001 3.880275e+000 -7.393799e+000 -6.848925e+000 -1.866347e+001 -1.504875e+001 -2.328692e+000 -1.085549e+001 -1.439140e+001 1.565713e+000 6.802430e+000
<VARIANCE> 12
 7.448587e+000 1.255570e+001 2.650907e+001 5.931274e+001 6.185529e+001 1.380153e+002 1.366210e+002 1.109710e+002 6.261914e+001 2.266555e+002 3.039793e+002 1.352013e+002
<GCONST> 7.281590e+001
<STATE> 7
<MEAN> 12
 -1.127725e+001 -5.060346e+000 -4.568951e+000 -1.881445e+001 -3.982985e+000 1.519030e+001 4.827941e+000 3.675097e+000 -6.005880e+000 -1.847079e+001 -9.493719e-001 6.204206e+000
<VARIANCE> 12
 8.511012e+000 1.426704e+001 2.155988e+001 4.206179e+001 7.215726e+001 2.429225e+002 1.311557e+002 4.939443e+001 1.346954e+002 1.733690e+002 1.881314e+002 6.193251e+001
<GCONST> 7.163325e+001
<TRANSP> 8
 0.000000e+000 1.000000e+000 0.000000e+000 0.000000e+000 0.000000e+000 0.000000e+000 0.000000e+000 0.000000e+000
 0.000000e+000 9.599205e-001 4.007956e-002 0.000000e+000 0.000000e+000 0.000000e+000 0.000000e+000 0.000000e+000
 0.000000e+000 0.000000e+000 9.425763e-001 5.742363e-002 0.000000e+000 0.000000e+000 0.000000e+000 0.000000e+000
 0.000000e+000 0.000000e+000 0.000000e+000 8.722172e-001 1.277829e-001 0.000000e+000 0.000000e+000 0.000000e+000
 0.000000e+000 0.000000e+000 0.000000e+000 0.000000e+000 9.450373e-001 5.496269e-002 0.000000e+000 0.000000e+000
 0.000000e+000 0.000000e+000 0.000000e+000 0.000000e+000 0.000000e+000 9.170376e-001 8.296239e-002 0.000000e+000
 0.000000e+000 0.000000e+000 0.000000e+000 0.000000e+000 0.000000e+000 0.000000e+000 9.318200e-001 6.818002e-002
 0.000000e+000 0.000000e+000 0.000000e+000 0.000000e+000 0.000000e+000 0.000000e+000 0.000000e+000 0.000000e+000
<ENDHMM>
